network unknown {
}
variable alcoholism {
  type discrete [ 2 ] { 1, 2 };
}
variable vh_amn {
  type discrete [ 2 ] { 1, 2 };
}
variable hepatotoxic {
  type discrete [ 2 ] { 1, 2 };
}
variable THepatitis {
  type discrete [ 2 ] { 1, 2 };
}
variable hospital {
  type discrete [ 2 ] { 1, 2 };
}
variable surgery {
  type discrete [ 2 ] { 1, 2 };
}
variable gallstones {
  type discrete [ 2 ] { 1, 2 };
}
variable choledocholithotomy {
  type discrete [ 2 ] { 1, 2 };
}
variable injections {
  type discrete [ 2 ] { 1, 2 };
}
variable transfusion {
  type discrete [ 2 ] { 1, 2 };
}
variable ChHepatitis {
  type discrete [ 3 ] { 0, 1, 2 };
}
variable sex {
  type discrete [ 2 ] { female, male };
}
variable age {
  type discrete [ 3 ] { 58, 40, 15 };
}
variable PBC {
  type discrete [ 2 ] { 1, 2 };
}
variable fibrosis {
  type discrete [ 2 ] { 1, 2 };
}
variable diabetes {
  type discrete [ 2 ] { 1, 2 };
}
variable obesity {
  type discrete [ 2 ] { 1, 2 };
}
variable Steatosis {
  type discrete [ 2 ] { 1, 2 };
}
variable Cirrhosis {
  type discrete [ 3 ] { decompensate, compensate, 2 };
}
variable Hyperbilirubinemia {
  type discrete [ 2 ] { 1, 2 };
}
variable triglycerides {
  type discrete [ 3 ] { a17_4, a3_2, a1_0 };
}
variable RHepatitis {
  type discrete [ 2 ] { 1, 2 };
}
variable fatigue {
  type discrete [ 2 ] { 1, 2 };
}
variable bilirubin {
  type discrete [ 3 ] { 54, 13, 0 };
}
variable itching {
  type discrete [ 2 ] { 1, 2 };
}
variable upper_pain {
  type discrete [ 2 ] { 1, 2 };
}
variable fat {
  type discrete [ 2 ] { 1, 2 };
}
variable pain_ruq {
  type discrete [ 2 ] { 1, 2 };
}
variable pressure_ruq {
  type discrete [ 2 ] { 1, 2 };
}
variable phosphatase {
  type discrete [ 3 ] { a4000_700, a699_240, a239_0 };
}
variable skin {
  type discrete [ 2 ] { 1, 2 };
}
variable ama {
  type discrete [ 2 ] { 1, 2 };
}
variable le_cells {
  type discrete [ 2 ] { 1, 2 };
}
variable joints {
  type discrete [ 2 ] { 1, 2 };
}
variable pain {
  type discrete [ 2 ] { 1, 2 };
}
variable proteins {
  type discrete [ 2 ] { a10_6, a5_2 };
}
variable edema {
  type discrete [ 2 ] { 1, 2 };
}
variable platelet {
  type discrete [ 3 ] { 450, 225, 50 };
}
variable inr {
  type discrete [ 3 ] { a200_110, a109_70, a69_0 };
}
variable bleeding {
  type discrete [ 2 ] { 1, 2 };
}
variable flatulence {
  type discrete [ 2 ] { 1, 2 };
}
variable alcohol {
  type discrete [ 2 ] { 1, 2 };
}
variable encephalopathy {
  type discrete [ 2 ] { 1, 2 };
}
variable urea {
  type discrete [ 3 ] { a165_50, a49_40, a39_0 };
}
variable ascites {
  type discrete [ 2 ] { 1, 2 };
}
variable hepatomegaly {
  type discrete [ 2 ] { 1, 2 };
}
variable hepatalgia {
  type discrete [ 2 ] { 1, 2 };
}
variable density {
  type discrete [ 2 ] { 1, 2 };
}
variable ESR {
  type discrete [ 3 ] { a200_50, a49_15, a14_0 };
}
variable alt {
  type discrete [ 3 ] { 525, 150, 17 };
}
variable ast {
  type discrete [ 4 ] { a700_400, a399_150, a149_40, a39_0 };
}
variable amylase {
  type discrete [ 3 ] { a1400_500, a499_300, a299_0 };
}
variable ggtp {
  type discrete [ 4 ] { a640_70, a69_30, a29_10, a9_0 };
}
variable cholesterol {
  type discrete [ 3 ] { a999_350, a349_240, a239_0 };
}
variable hbsag {
  type discrete [ 2 ] { 1, 2 };
}
variable hbsag_anti {
  type discrete [ 2 ] { 1, 2 };
}
variable anorexia {
  type discrete [ 2 ] { 1, 2 };
}
variable nausea {
  type discrete [ 2 ] { 1, 2 };
}
variable spleen {
  type discrete [ 2 ] { 1, 2 };
}
variable consciousness {
  type discrete [ 2 ] { 1, 2 };
}
variable spiders {
  type discrete [ 2 ] { 1, 2 };
}
variable jaundice {
  type discrete [ 2 ] { 1, 2 };
}
variable albumin {
  type discrete [ 3 ] { a70_50, a49_30, a29_0 };
}
variable edge {
  type discrete [ 2 ] { 1, 2 };
}
variable irregular_liver {
  type discrete [ 2 ] { 1, 2 };
}
variable hbc_anti {
  type discrete [ 2 ] { 1, 2 };
}
variable hcv_anti {
  type discrete [ 2 ] { 1, 2 };
}
variable palms {
  type discrete [ 2 ] { 1, 2 };
}
variable hbeag {
  type discrete [ 2 ] { 1, 2 };
}
variable carcinoma {
  type discrete [ 2 ] { 1, 2 };
}
probability ( alcoholism ) {
  table 0.1359084, 0.8640916;
}
probability ( vh_amn ) {
  table 0.1731044, 0.8268956;
}
probability ( hepatotoxic ) {
  table 0.08154506, 0.91845494;
}
probability ( THepatitis | hepatotoxic, alcoholism ) {
  (1, 1) 0.2, 0.8;
  (2, 1) 0.08888889, 0.91111111;
  (1, 2) 0.00191939, 0.99808061;
  (2, 2) 0.0326087, 0.9673913;
}
probability ( hospital ) {
  table 0.5350501, 0.4649499;
}
probability ( surgery ) {
  table 0.4234621, 0.5765379;
}
probability ( gallstones ) {
  table 0.1530758, 0.8469242;
}
probability ( choledocholithotomy | gallstones ) {
  (1) 0.7102804, 0.2897196;
  (2) 0.03716216, 0.96283784;
}
probability ( injections | hospital, surgery, choledocholithotomy ) {
  (1, 1, 1) 0.8, 0.2;
  (2, 1, 1) 0.375, 0.625;
  (1, 2, 1) 0.8333333, 0.1666667;
  (2, 2, 1) 0.01098901, 0.98901099;
  (1, 1, 2) 0.715847, 0.284153;
  (2, 1, 2) 0.2333333, 0.7666667;
  (1, 2, 2) 0.4818182, 0.5181818;
  (2, 2, 2) 0.0647482, 0.9352518;
}
probability ( transfusion | hospital, surgery, choledocholithotomy ) {
  (1, 1, 1) 0.3333333, 0.6666667;
  (2, 1, 1) 0.125, 0.875;
  (1, 2, 1) 0.1666667, 0.8333333;
  (2, 2, 1) 0.01098901, 0.98901099;
  (1, 1, 2) 0.2896175, 0.7103825;
  (2, 1, 2) 0.3, 0.7;
  (1, 2, 2) 0.1181818, 0.8818182;
  (2, 2, 2) 0.01079137, 0.98920863;
}
probability ( ChHepatitis | transfusion, vh_amn, injections ) {
  (1, 1, 1) 0.2094241, 0.0052356, 0.7853403;
  (2, 1, 1) 0.15384615, 0.05128205, 0.79487180;
  (1, 2, 1) 0.06, 0.06, 0.88;
  (2, 2, 1) 0.07692308, 0.00591716, 0.91715976;
  (1, 1, 2) 0.4615385, 0.3076923, 0.2307692;
  (2, 1, 2) 0.24, 0.14, 0.62;
  (1, 2, 2) 0.13043478, 0.04347826, 0.82608696;
  (2, 2, 2) 0.13095238, 0.05357143, 0.81547619;
}
probability ( sex ) {
  table 0.5979971, 0.4020029;
}
probability ( age ) {
  table 0.42015503516408875 0.43100775240843703 0.1488372124274743;
}
probability ( PBC | sex, age ) {
  (female, 58) 0.700565, 0.299435;
  (male, 58) 0.08510638, 0.91489362;
  (female, 40) 0.6149425, 0.3850575;
  (male, 40) 0.06730769, 0.93269231;
  (female, 15) 0.125, 0.875;
  (male, 15) 0.00156006, 0.99843994;
}
probability ( fibrosis | ChHepatitis ) {
  (0) 0.3, 0.7;
  (1) 0.05, 0.95;
  (2) 0.001, 0.999;
}
probability ( diabetes ) {
  table 0.03576538, 0.96423462;
}
probability ( obesity | diabetes ) {
  (1) 0.24, 0.76;
  (2) 0.06231454, 0.93768546;
}
probability ( Steatosis | obesity, alcoholism ) {
  (1, 1) 0.3636364, 0.6363636;
  (2, 1) 0.2380952, 0.7619048;
  (1, 2) 0.1891892, 0.8108108;
  (2, 2) 0.06349206, 0.93650794;
}
probability ( Cirrhosis | fibrosis, Steatosis ) {
  (1, 1) 0.56, 0.24, 0.20;
  (2, 1) 0.35, 0.15, 0.50;
  (1, 2) 0.49, 0.21, 0.30;
  (2, 2) 0.001, 0.001, 0.998;
}
probability ( Hyperbilirubinemia | age, sex ) {
  (58, female) 0.01129944, 0.98870056;
  (40, female) 0.04597701, 0.95402299;
  (15, female) 0.21875, 0.78125;
  (58, male) 0.0212766, 0.9787234;
  (40, male) 0.07692308, 0.92307692;
  (15, male) 0.453125, 0.546875;
}
probability ( triglycerides | Steatosis ) {
  (1) 0.1791045, 0.1641791, 0.6567164;
  (2) 0.02373418, 0.03164557, 0.94462025;
}
probability ( RHepatitis | hepatotoxic ) {
  (1) 0.01754386, 0.98245614;
  (2) 0.02492212, 0.97507788;
}
probability ( fatigue | ChHepatitis, THepatitis, RHepatitis ) {
  (0, 1, 1) 0.6363636, 0.3636364;
  (1, 1, 1) 0.6071429, 0.3928571;
  (2, 1, 1) 0.6153846, 0.3846154;
  (0, 2, 1) 0.6236559, 0.3763441;
  (1, 2, 1) 0.5892857, 0.4107143;
  (2, 2, 1) 0.7058823, 0.2941177;
  (0, 1, 2) 0.625, 0.375;
  (1, 1, 2) 0.5932203, 0.4067797;
  (2, 1, 2) 0.6666667, 0.3333333;
  (0, 2, 2) 0.6043956, 0.3956044;
  (1, 2, 2) 0.5277778, 0.4722222;
  (2, 2, 2) 0.5359849, 0.4640151;
}
probability ( bilirubin | Hyperbilirubinemia, PBC, Cirrhosis, gallstones, ChHepatitis ) {
  (1, 1, decompensate, 1, 0) 0.066667, 0.333333, 0.600000;
  (2, 1, decompensate, 1, 0) 0.068966, 0.241379, 0.689655;
  (1, 2, decompensate, 1, 0) 0.023810, 0.190476, 0.785714;
  (2, 2, decompensate, 1, 0) 0.044776, 0.253731, 0.701493;
  (1, 1, compensate, 1, 0) 0.058824, 0.264706, 0.676470;
  (2, 1, compensate, 1, 0) 0.067797, 0.271186, 0.661017;
  (1, 2, compensate, 1, 0) 0.005525, 0.055249, 0.939226;
  (2, 2, compensate, 1, 0) 0.005525, 0.165746, 0.828729;
  (1, 1, 2, 1, 0) 0.066667, 0.244444, 0.688889;
  (2, 1, 2, 1, 0) 0.068182, 0.250000, 0.681818;
  (1, 2, 2, 1, 0) 0.003817, 0.003817, 0.992366;
  (2, 2, 2, 1, 0) 0.012195, 0.012195, 0.975610;
  (1, 1, decompensate, 2, 0) 0.030303, 0.181818, 0.787879;
  (2, 1, decompensate, 2, 0) 0.045977, 0.218391, 0.735632;
  (1, 2, decompensate, 2, 0) 0.002320, 0.069606, 0.928074;
  (2, 2, decompensate, 2, 0) 0.019231, 0.096154, 0.884615;
  (1, 1, compensate, 2, 0) 0.030769, 0.169231, 0.800000;
  (2, 1, compensate, 2, 0) 0.046512, 0.197674, 0.755814;
  (1, 2, compensate, 2, 0) 0.002494, 0.024938, 0.972568;
  (2, 2, compensate, 2, 0) 0.021277, 0.021277, 0.957446;
  (1, 1, 2, 2, 0) 0.047059, 0.188235, 0.764706;
  (2, 1, 2, 2, 0) 0.058333, 0.225000, 0.716667;
  (1, 2, 2, 2, 0) 0.002123, 0.021231, 0.976646;
  (2, 2, 2, 2, 0) 0.014493, 0.028986, 0.956521;
  (1, 1, decompensate, 1, 1) 0.111111, 0.333333, 0.555556;
  (2, 1, decompensate, 1, 1) 0.107143, 0.321429, 0.571428;
  (1, 2, decompensate, 1, 1) 0.006211, 0.186335, 0.807454;
  (2, 2, decompensate, 1, 1) 0.027778, 0.250000, 0.722222;
  (1, 1, compensate, 1, 1) 0.095238, 0.333333, 0.571429;
  (2, 1, compensate, 1, 1) 0.081081, 0.324324, 0.594595;
  (1, 2, compensate, 1, 1) 0.016129, 0.016129, 0.967742;
  (2, 2, compensate, 1, 1) 0.010989, 0.109890, 0.879121;
  (1, 1, 2, 1, 1) 0.093750, 0.312500, 0.593750;
  (2, 1, 2, 1, 1) 0.085714, 0.300000, 0.614286;
  (1, 2, 2, 1, 1) 0.007042, 0.007042, 0.985916;
  (2, 2, 2, 1, 1) 0.083333, 0.083333, 0.833334;
  (1, 1, decompensate, 2, 1) 0.029412, 0.191176, 0.779412;
  (2, 1, decompensate, 2, 1) 0.033708, 0.213483, 0.752809;
  (1, 2, decompensate, 2, 1) 0.002320, 0.069606, 0.928074;
  (2, 2, decompensate, 2, 1) 0.017544, 0.105263, 0.877193;
  (1, 1, compensate, 2, 1) 0.029851, 0.164179, 0.805970;
  (2, 1, compensate, 2, 1) 0.034091, 0.193182, 0.772727;
  (1, 2, compensate, 2, 1) 0.002488, 0.002488, 0.995024;
  (2, 2, compensate, 2, 1) 0.018868, 0.018868, 0.962264;
  (1, 1, 2, 2, 1) 0.034483, 0.183908, 0.781609;
  (2, 1, 2, 2, 1) 0.044118, 0.220588, 0.735294;
  (1, 2, 2, 2, 1) 0.001916, 0.001916, 0.996168;
  (2, 2, 2, 2, 1) 0.003012, 0.003012, 0.993976;
  (1, 1, decompensate, 1, 2) 0.120000, 0.360000, 0.520000;
  (2, 1, decompensate, 1, 2) 0.119048, 0.357143, 0.523809;
  (1, 2, decompensate, 1, 2) 0.009009, 0.180180, 0.810811;
  (2, 2, decompensate, 1, 2) 0.019608, 0.196078, 0.784314;
  (1, 1, compensate, 1, 2) 0.120000, 0.360000, 0.520000;
  (2, 1, compensate, 1, 2) 0.111111, 0.355556, 0.533333;
  (1, 2, compensate, 1, 2) 0.023810, 0.023810, 0.952380;
  (2, 2, compensate, 1, 2) 0.083333, 0.083333, 0.833334;
  (1, 1, 2, 1, 2) 0.119048, 0.357143, 0.523809;
  (2, 1, 2, 1, 2) 0.134615, 0.384615, 0.480770;
  (1, 2, 2, 1, 2) 0.083333, 0.083333, 0.833334;
  (2, 2, 2, 1, 2) 0.016129, 0.016129, 0.967742;
  (1, 1, decompensate, 2, 2) 0.037500, 0.212500, 0.750000;
  (2, 1, decompensate, 2, 2) 0.042017, 0.243697, 0.714286;
  (1, 2, decompensate, 2, 2) 0.002079, 0.103950, 0.893971;
  (2, 2, decompensate, 2, 2) 0.033333, 0.233333, 0.733334;
  (1, 1, compensate, 2, 2) 0.037975, 0.189873, 0.772152;
  (2, 1, compensate, 2, 2) 0.042735, 0.213675, 0.743590;
  (1, 2, compensate, 2, 2) 0.002262, 0.002262, 0.995476;
  (2, 2, compensate, 2, 2) 0.038462, 0.038462, 0.923076;
  (1, 1, 2, 2, 2) 0.034783, 0.208696, 0.756521;
  (2, 1, 2, 2, 2) 0.049587, 0.272727, 0.677686;
  (1, 2, 2, 2, 2) 0.003968, 0.003968, 0.992064;
  (2, 2, 2, 2, 2) 0.000819, 0.024570, 0.974611;
}
probability ( itching | bilirubin ) {
  (54) 0.875, 0.125;
  (13) 0.6865672, 0.3134328;
  (0) 0.3333333, 0.6666667;
}
probability ( upper_pain | gallstones ) {
  (1) 0.411215, 0.588785;
  (2) 0.3868243, 0.6131757;
}
probability ( fat | gallstones ) {
  (1) 0.1775701, 0.8224299;
  (2) 0.2804054, 0.7195946;
}
probability ( pain_ruq | Steatosis, Hyperbilirubinemia ) {
  (1, 1) 0.3934426, 0.6065574;
  (2, 1) 0.2857143, 0.7142857;
  (1, 2) 0.4776119, 0.5223881;
  (2, 2) 0.421875, 0.578125;
}
probability ( pressure_ruq | gallstones, PBC, ChHepatitis ) {
  (1, 1, 0) 0.3333333, 0.6666667;
  (2, 1, 0) 0.3424658, 0.6575342;
  (1, 2, 0) 0.4, 0.6;
  (2, 2, 0) 0.4691358, 0.5308642;
  (1, 1, 1) 0.328125, 0.671875;
  (2, 1, 1) 0.3227513, 0.6772487;
  (1, 2, 1) 0.09090909, 0.90909091;
  (2, 2, 1) 0.4285714, 0.5714286;
  (1, 1, 2) 0.3292683, 0.6707317;
  (2, 1, 2) 0.2929293, 0.7070707;
  (1, 2, 2) 0.2857143, 0.7142857;
  (2, 2, 2) 0.4532374, 0.5467626;
}
probability ( phosphatase | RHepatitis, THepatitis, Cirrhosis, ChHepatitis ) {
  (1, 1, decompensate, 0) 0.04166667, 0.29166667, 0.66666666;
  (2, 1, decompensate, 0) 0.04761905, 0.28571429, 0.66666666;
  (1, 2, decompensate, 0) 0.02898551, 0.28985507, 0.68115942;
  (2, 2, decompensate, 0) 0.04597701, 0.29885057, 0.65517242;
  (1, 1, compensate, 0) 0.03773585, 0.26415094, 0.69811321;
  (2, 1, compensate, 0) 0.04166667, 0.27777778, 0.68055555;
  (1, 2, compensate, 0) 0.02985075, 0.29850746, 0.67164179;
  (2, 2, compensate, 0) 0.04494382, 0.33707865, 0.61797753;
  (1, 1, 2, 0) 0.03571429, 0.21428571, 0.75000000;
  (2, 1, 2, 0) 0.04651163, 0.22093023, 0.73255814;
  (1, 2, 2, 0) 0.02597403, 0.24675325, 0.72727272;
  (2, 2, 2, 0) 0.03296703, 0.21978022, 0.74725275;
  (1, 1, decompensate, 1) 0.04347826, 0.30434783, 0.65217391;
  (2, 1, decompensate, 1) 0.04918033, 0.31147541, 0.63934426;
  (1, 2, decompensate, 1) 0.03389831, 0.32203390, 0.64406779;
  (2, 2, decompensate, 1) 0.04494382, 0.33707865, 0.61797753;
  (1, 1, compensate, 1) 0.025, 0.250, 0.725;
  (2, 1, compensate, 1) 0.03703704, 0.25925926, 0.70370370;
  (1, 2, compensate, 1) 0.02040816, 0.28571429, 0.69387755;
  (2, 2, compensate, 1) 0.03896104, 0.31168831, 0.64935065;
  (1, 1, 2, 1) 0.02272727, 0.20454545, 0.77272728;
  (2, 1, 2, 1) 0.04054054, 0.20270270, 0.75675676;
  (1, 2, 2, 1) 0.015625, 0.234375, 0.750000;
  (2, 2, 2, 1) 0.02777778, 0.19444444, 0.77777778;
  (1, 1, decompensate, 2) 0.04166667, 0.33333333, 0.62500000;
  (2, 1, decompensate, 2) 0.05555556, 0.34722222, 0.59722222;
  (1, 2, decompensate, 2) 0.04545455, 0.37878788, 0.57575757;
  (2, 2, decompensate, 2) 0.06896552, 0.48275862, 0.44827586;
  (1, 1, compensate, 2) 0.02702703, 0.27027027, 0.70270270;
  (2, 1, compensate, 2) 0.05357143, 0.26785714, 0.67857143;
  (1, 2, compensate, 2) 0.02083333, 0.31250000, 0.66666667;
  (2, 2, compensate, 2) 0.06451613, 0.38709677, 0.54838710;
  (1, 1, 2, 2) 0.02325581, 0.18604651, 0.79069768;
  (2, 1, 2, 2) 0.07407407, 0.14814815, 0.77777778;
  (1, 2, 2, 2) 0.00584795, 0.23391813, 0.76023392;
  (2, 2, 2, 2) 0.2118451, 0.3394077, 0.4487472;
}
probability ( skin | bilirubin ) {
  (54) 0.99378882, 0.00621118;
  (13) 0.8955224, 0.1044776;
  (0) 0.1822542, 0.8177458;
}
probability ( ama | PBC ) {
  (1) 0.5678571, 0.4321429;
  (2) 0.01193317, 0.98806683;
}
probability ( le_cells | PBC ) {
  (1) 0.1214286, 0.8785714;
  (2) 0.04057279, 0.95942721;
}
probability ( joints | PBC ) {
  (1) 0.1285714, 0.8714286;
  (2) 0.1002387, 0.8997613;
}
probability ( pain | PBC, joints ) {
  (1, 1) 0.3888889, 0.6111111;
  (2, 1) 0.8095238, 0.1904762;
  (1, 2) 0.147541, 0.852459;
  (2, 2) 0.1830239, 0.8169761;
}
probability ( proteins | Cirrhosis ) {
  (decompensate) 0.99827883, 0.00172117;
  (compensate) 0.99678457, 0.00321543;
  (2) 0.98032787, 0.01967213;
}
probability ( edema | Cirrhosis ) {
  (decompensate) 0.3448276, 0.6551724;
  (compensate) 0.06451613, 0.93548387;
  (2) 0.1311475, 0.8688525;
}
probability ( platelet | Cirrhosis, PBC ) {
  (decompensate, 1) 0.079710, 0.775362, 0.144928;
  (compensate, 1) 0.079470, 0.774834, 0.145696;
  (2, 1) 0.076271, 0.796610, 0.127119;
  (decompensate, 2) 0.095238, 0.642857, 0.261905;
  (compensate, 2) 0.076923, 0.769231, 0.153846;
  (2, 2) 0.109155, 0.855634, 0.035211;
}
probability ( inr | ChHepatitis, Cirrhosis, THepatitis, Hyperbilirubinemia ) {
  (0, decompensate, 1, 1) 0.01754386, 0.84210526, 0.14035088;
  (1, decompensate, 1, 1) 0.03030303, 0.84848485, 0.12121212;
  (2, decompensate, 1, 1) 0.03448276, 0.81034483, 0.15517241;
  (0, compensate, 1, 1) 0.025, 0.850, 0.125;
  (1, compensate, 1, 1) 0.03508772, 0.82456140, 0.14035088;
  (2, compensate, 1, 1) 0.01785714, 0.76785715, 0.21428571;
  (0, 2, 1, 1) 0.02197802, 0.89010989, 0.08791209;
  (1, 2, 1, 1) 0.05084746, 0.88135593, 0.06779661;
  (2, 2, 1, 1) 0.03508772, 0.84210526, 0.12280702;
  (0, decompensate, 2, 1) 0.02150538, 0.81720430, 0.16129032;
  (1, decompensate, 2, 1) 0.02898551, 0.79710145, 0.17391304;
  (2, decompensate, 2, 1) 0.02173913, 0.75000000, 0.22826087;
  (0, compensate, 2, 1) 0.02409639, 0.86746988, 0.10843373;
  (1, compensate, 2, 1) 0.03571429, 0.85714285, 0.10714286;
  (2, compensate, 2, 1) 0.02816901, 0.80281691, 0.16901408;
  (0, 2, 2, 1) 0.024, 0.904, 0.072;
  (1, 2, 2, 1) 0.05333333, 0.90666667, 0.04000000;
  (2, 2, 2, 1) 0.05357143, 0.89285714, 0.05357143;
  (0, decompensate, 1, 2) 0.01298701, 0.81818182, 0.16883117;
  (1, decompensate, 1, 2) 0.03225806, 0.79032259, 0.17741935;
  (2, decompensate, 1, 2) 0.01428571, 0.75714286, 0.22857143;
  (0, compensate, 1, 2) 0.01333333, 0.86666667, 0.12000000;
  (1, compensate, 1, 2) 0.04081633, 0.83673469, 0.12244898;
  (2, compensate, 1, 2) 0.01785714, 0.78571429, 0.19642857;
  (0, 2, 1, 2) 0.01923077, 0.90384615, 0.07692308;
  (1, 2, 1, 2) 0.05, 0.90, 0.05;
  (2, 2, 1, 2) 0.03703704, 0.92592592, 0.03703704;
  (0, decompensate, 2, 2) 0.01666667, 0.80000000, 0.18333333;
  (1, decompensate, 2, 2) 0.02469136, 0.75308642, 0.22222222;
  (2, decompensate, 2, 2) 0.00172117, 0.60240964, 0.39586919;
  (0, compensate, 2, 2) 0.01960784, 0.85294118, 0.12745098;
  (1, compensate, 2, 2) 0.03333333, 0.83333334, 0.13333333;
  (2, compensate, 2, 2) 0.00321543, 0.67524116, 0.32154341;
  (0, 2, 2, 2) 0.02197802, 0.90109890, 0.07692308;
  (1, 2, 2, 2) 0.08333333, 0.88888889, 0.02777778;
  (2, 2, 2, 2) 0.065, 0.875, 0.060;
}
probability ( bleeding | platelet, inr ) {
  (450, a200_110) 0.1428571, 0.8571429;
  (225, a200_110) 0.1304348, 0.8695652;
  (50, a200_110) 0.5, 0.5;
  (450, a109_70) 0.106383, 0.893617;
  (225, a109_70) 0.1373494, 0.8626506;
  (50, a109_70) 0.255814, 0.744186;
  (450, a69_0) 0.09090909, 0.90909091;
  (225, a69_0) 0.425, 0.575;
  (50, a69_0) 0.6666667, 0.3333333;
}
probability ( flatulence | gallstones ) {
  (1) 0.3925234, 0.6074766;
  (2) 0.4307432, 0.5692568;
}
probability ( alcohol | Cirrhosis ) {
  (decompensate) 0.2068966, 0.7931034;
  (compensate) 0.2258064, 0.7741936;
  (2) 0.1114754, 0.8885246;
}
probability ( encephalopathy | Cirrhosis, PBC ) {
  (decompensate, 1) 0.05325444, 0.94674556;
  (compensate, 1) 0.04891304, 0.95108696;
  (2, 1) 0.05357143, 0.94642857;
  (decompensate, 2) 0.05172414, 0.94827586;
  (compensate, 2) 0.00321543, 0.99678457;
  (2, 2) 0.01515152, 0.98484848;
}
probability ( urea | encephalopathy ) {
  (1) 0.2173913, 0.1304348, 0.6521739;
  (2) 0.03550296, 0.06508876, 0.89940828;
}
probability ( ascites | proteins ) {
  (a10_6) 0.1280932, 0.8719068;
  (a5_2) 0.5833333, 0.4166667;
}
probability ( hepatomegaly | RHepatitis, THepatitis, Steatosis, Hyperbilirubinemia ) {
  (1, 1, 1, 1) 0.6097561, 0.3902439;
  (2, 1, 1, 1) 0.6, 0.4;
  (1, 2, 1, 1) 0.5901639, 0.4098361;
  (2, 2, 1, 1) 0.5866667, 0.4133333;
  (1, 1, 2, 1) 0.5918367, 0.4081633;
  (2, 1, 2, 1) 0.5897436, 0.4102564;
  (1, 2, 2, 1) 0.5555556, 0.4444444;
  (2, 2, 2, 1) 0.375, 0.625;
  (1, 1, 1, 2) 0.68, 0.32;
  (2, 1, 1, 2) 0.6756757, 0.3243243;
  (1, 2, 1, 2) 0.6527778, 0.3472222;
  (2, 2, 1, 2) 0.6865672, 0.3134328;
  (1, 1, 2, 2) 0.673913, 0.326087;
  (2, 1, 2, 2) 0.7777778, 0.2222222;
  (1, 2, 2, 2) 0.7058823, 0.2941177;
  (2, 2, 2, 2) 0.6973684, 0.3026316;
}
probability ( hepatalgia | hepatomegaly ) {
  (1) 0.3142251, 0.6857749;
  (2) 0.03070175, 0.96929825;
}
probability ( density | encephalopathy ) {
  (1) 0.7391304, 0.2608696;
  (2) 0.3772189, 0.6227811;
}
probability ( ESR | PBC, ChHepatitis, Steatosis, Hyperbilirubinemia ) {
  (1, 0, 1, 1) 0.2704918, 0.1721312, 0.5573770;
  (2, 0, 1, 1) 0.2682927, 0.1768293, 0.5548780;
  (1, 1, 1, 1) 0.3093923, 0.1767956, 0.5138121;
  (2, 1, 1, 1) 0.06024096, 0.12048193, 0.81927711;
  (1, 2, 1, 1) 0.3425926, 0.1712963, 0.4861111;
  (2, 2, 1, 1) 0.07594937, 0.06329114, 0.86075949;
  (1, 0, 2, 1) 0.2941177, 0.1911765, 0.5147058;
  (2, 0, 2, 1) 0.1045752, 0.1633987, 0.7320261;
  (1, 1, 2, 1) 0.3333333, 0.1720430, 0.4946237;
  (2, 1, 2, 1) 0.05434783, 0.07608696, 0.86956521;
  (1, 2, 2, 1) 0.3636364, 0.1818182, 0.4545455;
  (2, 2, 2, 1) 0.01785714, 0.07142857, 0.91071429;
  (1, 0, 1, 2) 0.2972973, 0.1837838, 0.5189189;
  (2, 0, 1, 2) 0.1750, 0.1625, 0.6625;
  (1, 1, 1, 2) 0.3315508, 0.1711230, 0.4973262;
  (2, 1, 1, 2) 0.08602151, 0.08602151, 0.82795698;
  (1, 2, 1, 2) 0.3629893, 0.1779359, 0.4590747;
  (2, 2, 1, 2) 0.13432836, 0.05970149, 0.80597015;
  (1, 0, 2, 2) 0.3205575, 0.2055749, 0.4738676;
  (2, 0, 2, 2) 0.03296703, 0.21978022, 0.74725275;
  (1, 1, 2, 2) 0.368, 0.184, 0.448;
  (2, 1, 2, 2) 0.05555556, 0.05555556, 0.88888888;
  (1, 2, 2, 2) 0.4321429, 0.2107143, 0.3571429;
  (2, 2, 2, 2) 0.04733728, 0.05325444, 0.89940828;
}
probability ( alt | ChHepatitis, RHepatitis, THepatitis, Steatosis, Cirrhosis ) {
  (0, 1, 1, 1, decompensate) 0.100000, 0.266667, 0.633333;
  (1, 1, 1, 1, decompensate) 0.085714, 0.257143, 0.657143;
  (2, 1, 1, 1, decompensate) 0.033333, 0.200000, 0.766667;
  (0, 2, 1, 1, decompensate) 0.106383, 0.297872, 0.595745;
  (1, 2, 1, 1, decompensate) 0.028571, 0.200000, 0.771429;
  (2, 2, 1, 1, decompensate) 0.032258, 0.193548, 0.774194;
  (0, 1, 2, 1, decompensate) 0.119048, 0.285714, 0.595238;
  (1, 1, 2, 1, decompensate) 0.032258, 0.193548, 0.774194;
  (2, 1, 2, 1, decompensate) 0.030303, 0.212121, 0.757576;
  (0, 2, 2, 1, decompensate) 0.118644, 0.288136, 0.593220;
  (1, 2, 2, 1, decompensate) 0.045455, 0.181818, 0.772727;
  (2, 2, 2, 1, decompensate) 0.046512, 0.162791, 0.790697;
  (0, 1, 1, 2, decompensate) 0.111111, 0.305556, 0.583333;
  (1, 1, 1, 2, decompensate) 0.038462, 0.192308, 0.769230;
  (2, 1, 1, 2, decompensate) 0.035714, 0.214286, 0.750000;
  (0, 2, 1, 2, decompensate) 0.120000, 0.280000, 0.600000;
  (1, 2, 1, 2, decompensate) 0.028571, 0.171429, 0.800000;
  (2, 2, 1, 2, decompensate) 0.043478, 0.173913, 0.782609;
  (0, 1, 2, 2, decompensate) 0.130435, 0.326087, 0.543478;
  (1, 1, 2, 2, decompensate) 0.032258, 0.225806, 0.741936;
  (2, 1, 2, 2, decompensate) 0.052632, 0.236842, 0.710526;
  (0, 2, 2, 2, decompensate) 0.141026, 0.307692, 0.551282;
  (1, 2, 2, 2, decompensate) 0.055556, 0.185185, 0.759259;
  (2, 2, 2, 2, decompensate) 0.129032, 0.225806, 0.645162;
  (0, 1, 1, 1, compensate) 0.093750, 0.281250, 0.625000;
  (1, 1, 1, 1, compensate) 0.037037, 0.222222, 0.740741;
  (2, 1, 1, 1, compensate) 0.003690, 0.221402, 0.774908;
  (0, 2, 1, 1, compensate) 0.095238, 0.285714, 0.619048;
  (1, 2, 1, 1, compensate) 0.003215, 0.192926, 0.803859;
  (2, 2, 1, 1, compensate) 0.003115, 0.186916, 0.809969;
  (0, 1, 2, 1, compensate) 0.102564, 0.307692, 0.589744;
  (1, 1, 2, 1, compensate) 0.003559, 0.213523, 0.782918;
  (2, 1, 2, 1, compensate) 0.003322, 0.232558, 0.764120;
  (0, 2, 2, 1, compensate) 0.109091, 0.290909, 0.600000;
  (1, 2, 2, 1, compensate) 0.025000, 0.200000, 0.775000;
  (2, 2, 2, 1, compensate) 0.021277, 0.191489, 0.787234;
  (0, 1, 1, 2, compensate) 0.121212, 0.333333, 0.545455;
  (1, 1, 1, 2, compensate) 0.004525, 0.226244, 0.769231;
  (2, 1, 1, 2, compensate) 0.004525, 0.271493, 0.723982;
  (0, 2, 1, 2, compensate) 0.133333, 0.311111, 0.555556;
  (1, 2, 1, 2, compensate) 0.033333, 0.200000, 0.766667;
  (2, 2, 1, 2, compensate) 0.026316, 0.210526, 0.763158;
  (0, 1, 2, 2, compensate) 0.146341, 0.365854, 0.487805;
  (1, 1, 2, 2, compensate) 0.038462, 0.269231, 0.692307;
  (2, 1, 2, 2, compensate) 0.033333, 0.300000, 0.666667;
  (0, 2, 2, 2, compensate) 0.150685, 0.342466, 0.506849;
  (1, 2, 2, 2, compensate) 0.043478, 0.217391, 0.739131;
  (2, 2, 2, 2, compensate) 0.066667, 0.400000, 0.533333;
  (0, 1, 1, 1, 2) 0.081081, 0.270270, 0.648649;
  (1, 1, 1, 1, 2) 0.003559, 0.177936, 0.818505;
  (2, 1, 1, 1, 2) 0.003322, 0.199336, 0.797342;
  (0, 2, 1, 1, 2) 0.100000, 0.260000, 0.640000;
  (1, 2, 1, 1, 2) 0.002695, 0.161725, 0.835580;
  (2, 2, 1, 1, 2) 0.002268, 0.158730, 0.839002;
  (0, 1, 2, 1, 2) 0.106383, 0.297872, 0.595745;
  (1, 1, 2, 1, 2) 0.003021, 0.211480, 0.785499;
  (2, 1, 2, 1, 2) 0.002625, 0.209974, 0.787401;
  (0, 2, 2, 1, 2) 0.109589, 0.287671, 0.602740;
  (1, 2, 2, 1, 2) 0.019231, 0.173077, 0.807692;
  (2, 2, 2, 1, 2) 0.002558, 0.153453, 0.843989;
  (0, 1, 1, 2, 2) 0.135135, 0.324324, 0.540541;
  (1, 1, 1, 2, 2) 0.004149, 0.207469, 0.788382;
  (2, 1, 1, 2, 2) 0.004149, 0.248963, 0.746888;
  (0, 2, 1, 2, 2) 0.140351, 0.315789, 0.543860;
  (1, 2, 1, 2, 2) 0.027778, 0.166667, 0.805555;
  (2, 2, 1, 2, 2) 0.005848, 0.116959, 0.877193;
  (0, 1, 2, 2, 2) 0.153846, 0.384615, 0.461539;
  (1, 1, 2, 2, 2) 0.033333, 0.266667, 0.700000;
  (2, 1, 2, 2, 2) 0.010989, 0.439560, 0.549451;
  (0, 2, 2, 2, 2) 0.200000, 0.381818, 0.418182;
  (1, 2, 2, 2, 2) 0.038462, 0.192308, 0.769230;
  (2, 2, 2, 2, 2) 0.079812, 0.305164, 0.615024;
}
probability ( ast | ChHepatitis, RHepatitis, THepatitis, Steatosis, Cirrhosis ) {
  (0, 1, 1, 1, decompensate) 0.01960784, 0.13725490, 0.47058824, 0.37254902;
  (1, 1, 1, 1, decompensate) 0.01754386, 0.14035088, 0.45614035, 0.38596491;
  (2, 1, 1, 1, decompensate) 0.00199601, 0.09980040, 0.45908184, 0.43912176;
  (0, 2, 1, 1, decompensate) 0.02469136, 0.16049383, 0.46913580, 0.34567901;
  (1, 2, 1, 1, decompensate) 0.00172117, 0.10327022, 0.44750430, 0.44750430;
  (2, 2, 1, 1, decompensate) 0.00181488, 0.09074410, 0.47186933, 0.43557169;
  (0, 1, 2, 1, decompensate) 0.02777778, 0.15277778, 0.48611111, 0.33333333;
  (1, 1, 2, 1, decompensate) 0.00191939, 0.09596929, 0.46065259, 0.44145873;
  (2, 1, 2, 1, decompensate) 0.00166389, 0.09983361, 0.49916805, 0.39933444;
  (0, 2, 2, 1, decompensate) 0.02912621, 0.16504854, 0.46601942, 0.33980583;
  (1, 2, 2, 1, decompensate) 0.00142653, 0.09985735, 0.44222539, 0.45649073;
  (2, 2, 2, 1, decompensate) 0.00133156, 0.09320905, 0.45272969, 0.45272969;
  (0, 1, 1, 2, decompensate) 0.01612903, 0.16129032, 0.48387097, 0.33870968;
  (1, 1, 1, 2, decompensate) 0.00221729, 0.11086475, 0.46563193, 0.42128603;
  (2, 1, 1, 2, decompensate) 0.00199601, 0.09980040, 0.47904192, 0.41916168;
  (0, 2, 1, 2, decompensate) 0.02352941, 0.16470588, 0.45882353, 0.35294118;
  (1, 2, 1, 2, decompensate) 0.00172117, 0.10327022, 0.43029260, 0.46471601;
  (2, 2, 1, 2, decompensate) 0.00126422, 0.08849558, 0.45512010, 0.45512010;
  (0, 1, 2, 2, decompensate) 0.025, 0.175, 0.500, 0.300;
  (1, 1, 2, 2, decompensate) 0.00184843, 0.11090573, 0.48059150, 0.40665434;
  (2, 1, 2, 2, decompensate) 0.00140647, 0.11251758, 0.52039381, 0.36568214;
  (0, 2, 2, 2, decompensate) 0.03676471, 0.17647059, 0.47058824, 0.31617647;
  (1, 2, 2, 2, decompensate) 0.01136364, 0.10227273, 0.44318182, 0.44318182;
  (2, 2, 2, 2, decompensate) 0.01724138, 0.13793103, 0.50000000, 0.34482759;
  (0, 1, 1, 1, compensate) 0.01818182, 0.12727273, 0.49090909, 0.36363636;
  (1, 1, 1, 1, compensate) 0.00221729, 0.08869180, 0.48780488, 0.42128603;
  (2, 1, 1, 1, compensate) 0.00212314, 0.08492569, 0.48832272, 0.42462845;
  (0, 2, 1, 1, compensate) 0.02739726, 0.13698630, 0.47945205, 0.35616438;
  (1, 2, 1, 1, compensate) 0.00191939, 0.07677543, 0.46065259, 0.46065259;
  (2, 2, 1, 1, compensate) 0.00172117, 0.06884682, 0.48192771, 0.44750430;
  (0, 1, 2, 1, compensate) 0.02941176, 0.14705882, 0.50000001, 0.32352941;
  (1, 1, 2, 1, compensate) 0.00203666, 0.08146640, 0.48879837, 0.42769857;
  (2, 1, 2, 1, compensate) 0.00175131, 0.08756567, 0.52539405, 0.38528897;
  (0, 2, 2, 1, compensate) 0.0312500, 0.1562500, 0.4791667, 0.3333333;
  (1, 2, 2, 1, compensate) 0.00149031, 0.08941878, 0.46199702, 0.44709389;
  (2, 2, 2, 1, compensate) 0.00116144, 0.08130081, 0.48780488, 0.42973287;
  (0, 1, 1, 2, compensate) 0.01818182, 0.16363636, 0.50909091, 0.30909091;
  (1, 1, 1, 2, compensate) 0.00269542, 0.08086253, 0.51212938, 0.40431267;
  (2, 1, 1, 2, compensate) 0.00249377, 0.07481297, 0.54862842, 0.37406484;
  (0, 2, 1, 2, compensate) 0.02597403, 0.16883117, 0.48051948, 0.32467532;
  (1, 2, 1, 2, compensate) 0.00203666, 0.08146640, 0.46843177, 0.44806517;
  (2, 2, 1, 2, compensate) 0.00149031, 0.07451565, 0.49180328, 0.43219076;
  (0, 1, 2, 2, compensate) 0.02777778, 0.18055556, 0.52777777, 0.26388889;
  (1, 1, 2, 2, compensate) 0.00226757, 0.09070295, 0.52154195, 0.38548753;
  (2, 1, 2, 2, compensate) 0.00172117, 0.10327022, 0.58519794, 0.30981067;
  (0, 2, 2, 2, compensate) 0.03937008, 0.18110236, 0.49606299, 0.28346457;
  (1, 2, 2, 2, compensate) 0.01315789, 0.09210526, 0.47368421, 0.42105263;
  (2, 2, 2, 2, compensate) 0.03225806, 0.06451613, 0.67741936, 0.22580645;
  (0, 1, 1, 1, 2) 0.01612903, 0.14516129, 0.46774194, 0.37096774;
  (1, 1, 1, 1, 2) 0.00212314, 0.08492569, 0.44585987, 0.46709130;
  (2, 1, 1, 1, 2) 0.00191939, 0.07677543, 0.46065259, 0.46065259;
  (0, 2, 1, 1, 2) 0.02380952, 0.14285714, 0.45238095, 0.38095238;
  (1, 2, 1, 1, 2) 0.00166389, 0.08319468, 0.41597338, 0.49916805;
  (2, 2, 1, 1, 2) 0.00133156, 0.06657790, 0.43941411, 0.49267643;
  (0, 1, 2, 1, 2) 0.02531646, 0.15189873, 0.48101266, 0.34177215;
  (1, 1, 2, 1, 2) 0.00181488, 0.09074410, 0.45372051, 0.45372051;
  (2, 1, 2, 1, 2) 0.00142653, 0.08559201, 0.49928673, 0.41369472;
  (0, 2, 2, 1, 2) 0.03174603, 0.15873016, 0.46031746, 0.34920635;
  (1, 2, 2, 1, 2) 0.00120337, 0.08423586, 0.43321300, 0.48134777;
  (2, 2, 2, 1, 2) 0.00149031, 0.07451565, 0.43219076, 0.49180328;
  (0, 1, 1, 2, 2) 0.03225806, 0.17741935, 0.48387097, 0.30645161;
  (1, 1, 1, 2, 2) 0.00269542, 0.08086253, 0.45822102, 0.45822102;
  (2, 1, 1, 2, 2) 0.00243309, 0.07299270, 0.51094891, 0.41362530;
  (0, 2, 1, 2, 2) 0.0312500, 0.1875000, 0.4583333, 0.3229167;
  (1, 2, 1, 2, 2) 0.00181488, 0.09074410, 0.41742287, 0.49001815;
  (2, 2, 1, 2, 2) 0.00369004, 0.07380074, 0.36900369, 0.55350553;
  (0, 1, 2, 2, 2) 0.03370787, 0.20224719, 0.50561797, 0.25842697;
  (1, 1, 2, 2, 2) 0.00212314, 0.10615711, 0.48832272, 0.40339703;
  (2, 1, 2, 2, 2) 0.00584795, 0.11695906, 0.64327486, 0.23391813;
  (0, 2, 2, 2, 2) 0.05494505, 0.23076923, 0.46153846, 0.25274725;
  (1, 2, 2, 2, 2) 0.02777778, 0.11111111, 0.36111111, 0.50000000;
  (2, 2, 2, 2, 2) 0.01075269, 0.22580645, 0.46774194, 0.29569892;
}
probability ( amylase | gallstones ) {
  (1) 0.01869159, 0.04672897, 0.93457944;
  (2) 0.01013514, 0.01689189, 0.97297297;
}
probability ( ggtp | PBC, THepatitis, RHepatitis, Steatosis, ChHepatitis, Hyperbilirubinemia ) {
  (1, 1, 1, 1, 0, 1) 0.1590909, 0.1477273, 0.1136364, 0.5795454;
  (2, 1, 1, 1, 0, 1) 0.1509434, 0.1415094, 0.1226415, 0.5849057;
  (1, 2, 1, 1, 0, 1) 0.1756757, 0.1621622, 0.1216216, 0.5405405;
  (2, 2, 1, 1, 0, 1) 0.06349206, 0.04761905, 0.11111111, 0.77777778;
  (1, 1, 2, 1, 0, 1) 0.1666667, 0.1590909, 0.1212121, 0.5530303;
  (2, 1, 2, 1, 0, 1) 0.05714286, 0.04285714, 0.10000000, 0.80000000;
  (1, 2, 2, 1, 0, 1) 0.1787710, 0.1731844, 0.1229050, 0.5251396;
  (2, 2, 2, 1, 0, 1) 0.06493506, 0.06493506, 0.11688312, 0.75324676;
  (1, 1, 1, 2, 0, 1) 0.1694915, 0.1610169, 0.1186441, 0.5508475;
  (2, 1, 1, 2, 0, 1) 0.06557377, 0.04918033, 0.09836066, 0.78688524;
  (1, 2, 1, 2, 0, 1) 0.1776316, 0.1710526, 0.1250000, 0.5263158;
  (2, 2, 1, 2, 0, 1) 0.06410256, 0.05128205, 0.10256410, 0.78205129;
  (1, 1, 2, 2, 0, 1) 0.1741935, 0.1677419, 0.1225806, 0.5354840;
  (2, 1, 2, 2, 0, 1) 0.06024096, 0.04819277, 0.09638554, 0.79518073;
  (1, 2, 2, 2, 0, 1) 0.1826087, 0.1782609, 0.1260870, 0.5130434;
  (2, 2, 2, 2, 0, 1) 0.05660377, 0.06603774, 0.12264151, 0.75471698;
  (1, 1, 1, 1, 1, 1) 0.1546392, 0.1443299, 0.1134021, 0.5876288;
  (2, 1, 1, 1, 1, 1) 0.05555556, 0.03703704, 0.09259259, 0.81481481;
  (1, 2, 1, 1, 1, 1) 0.1666667, 0.1500000, 0.1250000, 0.5583333;
  (2, 2, 1, 1, 1, 1) 0.04838710, 0.03225806, 0.11290323, 0.80645161;
  (1, 1, 2, 1, 1, 1) 0.1652893, 0.1487603, 0.1157025, 0.5702479;
  (2, 1, 2, 1, 1, 1) 0.04545455, 0.03030303, 0.10606061, 0.81818181;
  (1, 2, 2, 1, 1, 1) 0.1698113, 0.1572327, 0.1257862, 0.5471698;
  (2, 2, 2, 1, 1, 1) 0.04444444, 0.04444444, 0.12222222, 0.78888890;
  (1, 1, 1, 2, 1, 1) 0.1759259, 0.1574074, 0.1111111, 0.5555556;
  (2, 1, 1, 2, 1, 1) 0.04166667, 0.02083333, 0.08333333, 0.85416667;
  (1, 2, 1, 2, 1, 1) 0.1785714, 0.1714286, 0.1214286, 0.5285714;
  (2, 2, 1, 2, 1, 1) 0.04545455, 0.04545455, 0.10606061, 0.80303029;
  (1, 1, 2, 2, 1, 1) 0.1748252, 0.1678322, 0.1188811, 0.5384615;
  (2, 1, 2, 2, 1, 1) 0.04166667, 0.04166667, 0.09722222, 0.81944444;
  (1, 2, 2, 2, 1, 1) 0.1846847, 0.1846847, 0.1261261, 0.5045045;
  (2, 2, 2, 2, 1, 1) 0.04395604, 0.07692308, 0.13186813, 0.74725275;
  (1, 1, 1, 1, 2, 1) 0.1666667, 0.1481482, 0.1111111, 0.5740740;
  (2, 1, 1, 1, 2, 1) 0.05649718, 0.00188324, 0.07532957, 0.86629001;
  (1, 2, 1, 1, 2, 1) 0.1764706, 0.1544118, 0.1176471, 0.5514705;
  (2, 2, 1, 1, 2, 1) 0.04615385, 0.01538462, 0.09230769, 0.84615384;
  (1, 1, 2, 1, 2, 1) 0.1726619, 0.1510791, 0.1151079, 0.5611511;
  (2, 1, 2, 1, 2, 1) 0.04285714, 0.01428571, 0.08571429, 0.85714286;
  (1, 2, 2, 1, 2, 1) 0.1822917, 0.1614583, 0.1197917, 0.5364583;
  (2, 2, 2, 1, 2, 1) 0.03703704, 0.02777778, 0.10185185, 0.83333333;
  (1, 1, 1, 2, 2, 1) 0.1885246, 0.1639344, 0.1065574, 0.5409836;
  (2, 1, 1, 2, 2, 1) 0.04338395, 0.00216920, 0.04338395, 0.91106290;
  (1, 2, 1, 2, 2, 1) 0.1964286, 0.1785714, 0.1130952, 0.5119048;
  (2, 2, 1, 2, 2, 1) 0.03076923, 0.01538462, 0.06153846, 0.89230769;
  (1, 1, 2, 2, 2, 1) 0.1918605, 0.1744186, 0.1104651, 0.5232558;
  (2, 1, 2, 2, 2, 1) 0.02702703, 0.01351351, 0.05405405, 0.90540541;
  (1, 2, 2, 2, 2, 1) 0.1986755, 0.1920530, 0.1225166, 0.4867550;
  (2, 2, 2, 2, 2, 1) 0.00177936, 0.00177936, 0.01779359, 0.97864769;
  (1, 1, 1, 1, 0, 2) 0.1696429, 0.1607143, 0.1250000, 0.5446428;
  (2, 1, 1, 1, 0, 2) 0.10526316, 0.09210526, 0.13157895, 0.67105263;
  (1, 2, 1, 1, 0, 2) 0.1800000, 0.1666667, 0.1333333, 0.5200000;
  (2, 2, 1, 1, 0, 2) 0.07594937, 0.07594937, 0.13924051, 0.70886075;
  (1, 1, 2, 1, 0, 2) 0.1768707, 0.1632653, 0.1292517, 0.5306123;
  (2, 1, 2, 1, 0, 2) 0.07142857, 0.07142857, 0.13095238, 0.72619048;
  (1, 2, 2, 1, 0, 2) 0.1804878, 0.1756098, 0.1365854, 0.5073170;
  (2, 2, 2, 1, 0, 2) 0.07692308, 0.08547009, 0.14529915, 0.69230768;
  (1, 1, 1, 2, 0, 2) 0.1832061, 0.1755725, 0.1297710, 0.5114504;
  (2, 1, 1, 2, 0, 2) 0.078125, 0.078125, 0.125000, 0.718750;
  (1, 2, 1, 2, 0, 2) 0.1899441, 0.1899441, 0.1340782, 0.4860335;
  (2, 2, 1, 2, 0, 2) 0.07692308, 0.08791209, 0.13186813, 0.70329670;
  (1, 1, 2, 2, 0, 2) 0.1857923, 0.1857923, 0.1311475, 0.4972678;
  (2, 1, 2, 2, 0, 2) 0.07070707, 0.08080808, 0.12121212, 0.72727273;
  (1, 2, 2, 2, 0, 2) 0.1939799, 0.1939799, 0.1371237, 0.4749164;
  (2, 2, 2, 2, 0, 2) 0.08791209, 0.14285714, 0.17582418, 0.59340659;
  (1, 1, 1, 1, 1, 2) 0.1730769, 0.1538462, 0.1250000, 0.5480769;
  (2, 1, 1, 1, 1, 2) 0.06122449, 0.02040816, 0.10204082, 0.81632653;
  (1, 2, 1, 1, 1, 2) 0.1782946, 0.1627907, 0.1317830, 0.5271317;
  (2, 2, 1, 1, 1, 2) 0.05000000, 0.03333333, 0.13333333, 0.78333334;
  (1, 1, 2, 1, 1, 2) 0.1742424, 0.1590909, 0.1287879, 0.5378788;
  (2, 1, 2, 1, 1, 2) 0.04615385, 0.03076923, 0.12307692, 0.80000000;
  (1, 2, 2, 1, 1, 2) 0.1843575, 0.1675978, 0.1340782, 0.5139665;
  (2, 2, 2, 1, 1, 2) 0.04210526, 0.04210526, 0.13684211, 0.77894737;
  (1, 1, 1, 2, 1, 2) 0.1913044, 0.1739130, 0.1217391, 0.5130435;
  (2, 1, 1, 2, 1, 2) 0.04761905, 0.02380952, 0.09523810, 0.83333333;
  (1, 2, 1, 2, 1, 2) 0.1987179, 0.1858974, 0.1282051, 0.4871795;
  (2, 2, 1, 2, 1, 2) 0.03448276, 0.03448276, 0.12068966, 0.81034482;
  (1, 1, 2, 2, 1, 2) 0.19375, 0.18125, 0.12500, 0.50000;
  (2, 1, 2, 2, 1, 2) 0.03030303, 0.03030303, 0.10606061, 0.83333333;
  (1, 2, 2, 2, 1, 2) 0.2007435, 0.1970260, 0.1338290, 0.4684015;
  (2, 2, 2, 2, 1, 2) 0.00277008, 0.05540166, 0.19390582, 0.74792244;
  (1, 1, 1, 1, 2, 2) 0.1854839, 0.1612903, 0.1209677, 0.5322581;
  (2, 1, 1, 1, 2, 2) 0.07393715, 0.00184843, 0.09242144, 0.83179298;
  (1, 2, 1, 1, 2, 2) 0.1939394, 0.1696970, 0.1272727, 0.5090909;
  (2, 2, 1, 1, 2, 2) 0.06756757, 0.01351351, 0.10810811, 0.81081081;
  (1, 1, 2, 1, 2, 2) 0.1893491, 0.1656805, 0.1242604, 0.5207100;
  (2, 1, 2, 1, 2, 2) 0.06172840, 0.01234568, 0.09876543, 0.82716049;
  (1, 2, 2, 1, 2, 2) 0.1977612, 0.1791045, 0.1268657, 0.4962687;
  (2, 2, 2, 1, 2, 2) 0.07462687, 0.02985075, 0.13432836, 0.76119402;
  (1, 1, 1, 2, 2, 2) 0.2108843, 0.1836735, 0.1156463, 0.4897959;
  (2, 1, 1, 2, 2, 2) 0.06651885, 0.00221729, 0.04434590, 0.88691796;
  (1, 2, 1, 2, 2, 2) 0.2207792, 0.1991342, 0.1212121, 0.4588745;
  (2, 2, 1, 2, 2, 2) 0.11695906, 0.00584795, 0.05847953, 0.81871346;
  (1, 1, 2, 2, 2, 2) 0.2142857, 0.1932773, 0.1176471, 0.4747899;
  (2, 1, 2, 2, 2, 2) 0.07380074, 0.00369004, 0.03690037, 0.88560885;
  (1, 2, 2, 2, 2, 2) 0.2392857, 0.2250000, 0.1321429, 0.4035714;
  (2, 2, 2, 2, 2, 2) 0.080, 0.096, 0.144, 0.680;
}
probability ( cholesterol | PBC, Steatosis, ChHepatitis ) {
  (1, 1, 0) 0.08965517, 0.28275862, 0.62758621;
  (2, 1, 0) 0.09174312, 0.27981651, 0.62844037;
  (1, 2, 0) 0.1015873, 0.3047619, 0.5936508;
  (2, 2, 0) 0.03296703, 0.06593407, 0.90109890;
  (1, 1, 1) 0.09659091, 0.30113636, 0.60227273;
  (2, 1, 1) 0.06918239, 0.23899371, 0.69182390;
  (1, 2, 1) 0.1050955, 0.3152866, 0.5796179;
  (2, 2, 1) 0.00277008, 0.02770083, 0.96952909;
  (1, 1, 2) 0.1034483, 0.3256705, 0.5708812;
  (2, 1, 2) 0.04477612, 0.22388060, 0.73134328;
  (1, 2, 2) 0.1250000, 0.3642857, 0.5107143;
  (2, 2, 2) 0.00044425, 0.09773434, 0.90182141;
}
probability ( hbsag | vh_amn, ChHepatitis ) {
  (1, 0) 0.5, 0.5;
  (2, 0) 0.1904762, 0.8095238;
  (1, 1) 0.4615385, 0.5384615;
  (2, 1) 0.04347826, 0.95652174;
  (1, 2) 0.1125, 0.8875;
  (2, 2) 0.04674797, 0.95325203;
}
probability ( hbsag_anti | vh_amn, ChHepatitis, hbsag ) {
  (1, 0, 1) 0.0070922, 0.9929078;
  (2, 0, 1) 0.08333333, 0.91666667;
  (1, 1, 1) 0.01639344, 0.98360656;
  (2, 1, 1) 0.09090909, 0.90909091;
  (1, 2, 1) 0.01098901, 0.98901099;
  (2, 2, 1) 0.004329, 0.995671;
  (1, 0, 2) 0.07142857, 0.92857143;
  (2, 0, 2) 0.00195695, 0.99804305;
  (1, 1, 2) 0.01408451, 0.98591549;
  (2, 1, 2) 0.00452489, 0.99547511;
  (1, 2, 2) 0.04225352, 0.95774648;
  (2, 2, 2) 0.01492537, 0.98507463;
}
probability ( anorexia | RHepatitis, THepatitis ) {
  (1, 1) 0.1818182, 0.8181818;
  (2, 1) 0.2222222, 0.7777778;
  (1, 2) 0.1176471, 0.8823529;
  (2, 2) 0.280916, 0.719084;
}
probability ( nausea | RHepatitis, THepatitis ) {
  (1, 1) 0.3636364, 0.6363636;
  (2, 1) 0.3703704, 0.6296296;
  (1, 2) 0.3529412, 0.6470588;
  (2, 2) 0.2854962, 0.7145038;
}
probability ( spleen | Cirrhosis, RHepatitis, THepatitis ) {
  (decompensate, 1, 1) 0.3235294, 0.6764706;
  (compensate, 1, 1) 0.3023256, 0.6976744;
  (2, 1, 1) 0.1621622, 0.8378378;
  (decompensate, 2, 1) 0.3623188, 0.6376812;
  (compensate, 2, 1) 0.2156863, 0.7843137;
  (2, 2, 1) 0.1111111, 0.8888889;
  (decompensate, 1, 2) 0.3703704, 0.6296296;
  (compensate, 1, 2) 0.2444444, 0.7555556;
  (2, 1, 2) 0.1176471, 0.8823529;
  (decompensate, 2, 2) 0.4827586, 0.5172414;
  (compensate, 2, 2) 0.2580645, 0.7419355;
  (2, 2, 2) 0.1007067, 0.8992933;
}
probability ( consciousness | encephalopathy ) {
  (1) 0.3043478, 0.6956522;
  (2) 0.01627219, 0.98372781;
}
probability ( spiders | Cirrhosis ) {
  (decompensate) 0.6034483, 0.3965517;
  (compensate) 0.483871, 0.516129;
  (2) 0.1836066, 0.8163934;
}
probability ( jaundice | bilirubin ) {
  (54) 0.75, 0.25;
  (13) 0.5671642, 0.4328358;
  (0) 0.1942446, 0.8057554;
}
probability ( albumin | Cirrhosis ) {
  (decompensate) 0.91222031, 0.08605852, 0.00172117;
  (compensate) 0.96463023, 0.00321543, 0.03215434;
  (2) 0.7393443, 0.1426229, 0.1180328;
}
probability ( edge | Cirrhosis ) {
  (decompensate) 0.7586207, 0.2413793;
  (compensate) 0.4516129, 0.5483871;
  (2) 0.2344262, 0.7655738;
}
probability ( irregular_liver | Cirrhosis ) {
  (decompensate) 0.6034483, 0.3965517;
  (compensate) 0.3548387, 0.6451613;
  (2) 0.1065574, 0.8934426;
}
probability ( hbc_anti | vh_amn, ChHepatitis ) {
  (1, 0) 0.00355872, 0.99644128;
  (2, 0) 0.07936508, 0.92063492;
  (1, 1) 0.00763359, 0.99236641;
  (2, 1) 0.1304348, 0.8695652;
  (1, 2) 0.0875, 0.9125;
  (2, 2) 0.101626, 0.898374;
}
probability ( hcv_anti | vh_amn, ChHepatitis ) {
  (1, 0) 0.00355872, 0.99644128;
  (2, 0) 0.00158479, 0.99841521;
  (1, 1) 0.00763359, 0.99236641;
  (2, 1) 0.004329, 0.995671;
  (1, 2) 0.00124844, 0.99875156;
  (2, 2) 0.00203252, 0.99796748;
}
probability ( palms | Cirrhosis ) {
  (decompensate) 0.5, 0.5;
  (compensate) 0.2903226, 0.7096774;
  (2) 0.1409836, 0.8590164;
}
probability ( hbeag | vh_amn, ChHepatitis ) {
  (1, 0) 0.00355872, 0.99644128;
  (2, 0) 0.00158479, 0.99841521;
  (1, 1) 0.00763359, 0.99236641;
  (2, 1) 0.04347826, 0.95652174;
  (1, 2) 0.00124844, 0.99875156;
  (2, 2) 0.00203252, 0.99796748;
}
probability ( carcinoma | Cirrhosis, PBC ) {
  (decompensate, 1) 0.3636364, 0.6363636;
  (compensate, 1) 0.2727273, 0.7272727;
  (2, 1) 0.1, 0.9;
  (decompensate, 2) 0.3, 0.7;
  (compensate, 2) 0.2, 0.8;
  (2, 2) 0.01, 0.99;
}
