network unknown {
}
variable age {
    type discrete [ 6 ] { 20, 30, 40, 50, 60, 70 };
}
variable ca {
    type discrete [ 4 ] { 0.0, 1.0, 2.0, 3.0 };
}
variable chol {
    type discrete [ 29 ] { 120, 130, 140, 150, 160, 170, 180, 190, 200, 210, 220, 230, 240, 250, 260, 270, 280, 290, 300, 310, 320, 330, 340, 350, 360, 390, 400, 410, 560 };
}
variable cp {
    type discrete [ 4 ] { 1.0, 2.0, 3.0, 4.0 };
}
variable exang {
    type discrete [ 2 ] { 0.0, 1.0 };
}
variable fbs {
    type discrete [ 2 ] { 0.0, 1.0 };
}
variable num {
    type discrete [ 5 ] { 0, 1, 2, 3, 4 };
}
variable oldpeak {
    type discrete [ 7 ] { 0, 1, 2, 3, 4, 5, 6 };
}
variable restecg {
    type discrete [ 3 ] { 0.0, 1.0, 2.0 };
}
variable sex {
    type discrete [ 2 ] { 0.0, 1.0 };
}
variable slope {
    type discrete [ 3 ] { 1.0, 2.0, 3.0 };
}
variable thal {
    type discrete [ 3 ] { 3.0, 6.0, 7.0 };
}
variable thalach {
    type discrete [ 14 ] { 100, 110, 120, 130, 140, 150, 160, 170, 180, 190, 200, 70, 80, 90 };
}
variable trestbps {
    type discrete [ 12 ] { 100, 110, 120, 130, 140, 150, 160, 170, 180, 190, 200, 90 };
}
probability ( age ) {
    table 0.003367003367003367, 0.04377104377104377, 0.23905723905723905, 0.4074074074074074, 0.2727272727272727, 0.03367003367003367 ;
}
probability ( ca | num ) {
    ( 0 ) 0.80625, 0.13125, 0.04375, 0.01875;
    ( 1 ) 0.48148148148148145, 0.35185185185185186, 0.1111111111111111, 0.05555555555555555;
    ( 2 ) 0.22857142857142856, 0.4, 0.2571428571428571, 0.11428571428571428;
    ( 3 ) 0.22857142857142856, 0.22857142857142856, 0.4, 0.14285714285714285;
    ( 4 ) 0.23076923076923078, 0.23076923076923078, 0.15384615384615385, 0.38461538461538464;

}
probability ( chol | trestbps ) {
    ( 100 ) 0.0, 0.0, 0.05555555555555555, 0.0, 0.0, 0.0, 0.0, 0.1111111111111111, 0.1111111111111111, 0.0, 0.1111111111111111, 0.1111111111111111, 0.16666666666666666, 0.0, 0.16666666666666666, 0.0, 0.0, 0.05555555555555555, 0.05555555555555555, 0.05555555555555555, 0.0, 0.0, 0.0, 0.0, 0.0, 0.0, 0.0, 0.0, 0.0;
    ( 110 ) 0.0, 0.0, 0.05, 0.0, 0.05, 0.05, 0.05, 0.025, 0.075, 0.15, 0.025, 0.15, 0.05, 0.05, 0.1, 0.05, 0.0, 0.025, 0.025, 0.025, 0.0, 0.025, 0.0, 0.0, 0.0, 0.0, 0.0, 0.0, 0.025;
    ( 120 ) 0.0, 0.0, 0.0, 0.013888888888888888, 0.013888888888888888, 0.041666666666666664, 0.027777777777777776, 0.06944444444444445, 0.06944444444444445, 0.1111111111111111, 0.06944444444444445, 0.041666666666666664, 0.09722222222222222, 0.08333333333333333, 0.09722222222222222, 0.027777777777777776, 0.06944444444444445, 0.027777777777777776, 0.09722222222222222, 0.0, 0.013888888888888888, 0.0, 0.013888888888888888, 0.013888888888888888, 0.0, 0.0, 0.0, 0.0, 0.0;
    ( 130 ) 0.0, 0.014925373134328358, 0.0, 0.0, 0.014925373134328358, 0.0, 0.04477611940298507, 0.04477611940298507, 0.1044776119402985, 0.029850746268656716, 0.04477611940298507, 0.11940298507462686, 0.04477611940298507, 0.16417910447761194, 0.07462686567164178, 0.04477611940298507, 0.04477611940298507, 0.014925373134328358, 0.04477611940298507, 0.04477611940298507, 0.014925373134328358, 0.029850746268656716, 0.029850746268656716, 0.014925373134328358, 0.0, 0.0, 0.014925373134328358, 0.0, 0.0;
    ( 140 ) 0.0, 0.0, 0.0, 0.0, 0.0, 0.06521739130434782, 0.043478260869565216, 0.10869565217391304, 0.08695652173913043, 0.08695652173913043, 0.06521739130434782, 0.10869565217391304, 0.043478260869565216, 0.021739130434782608, 0.043478260869565216, 0.021739130434782608, 0.021739130434782608, 0.08695652173913043, 0.06521739130434782, 0.043478260869565216, 0.021739130434782608, 0.021739130434782608, 0.0, 0.0, 0.0, 0.021739130434782608, 0.0, 0.021739130434782608, 0.0;
    ( 150 ) 0.038461538461538464, 0.0, 0.0, 0.0, 0.038461538461538464, 0.0, 0.0, 0.0, 0.0, 0.07692307692307693, 0.11538461538461539, 0.11538461538461539, 0.23076923076923078, 0.038461538461538464, 0.038461538461538464, 0.15384615384615385, 0.038461538461538464, 0.038461538461538464, 0.038461538461538464, 0.0, 0.0, 0.0, 0.0, 0.0, 0.0, 0.0, 0.038461538461538464, 0.0, 0.0;
    ( 160 ) 0.0, 0.0, 0.0, 0.0, 0.07692307692307693, 0.07692307692307693, 0.0, 0.0, 0.07692307692307693, 0.0, 0.07692307692307693, 0.07692307692307693, 0.07692307692307693, 0.0, 0.07692307692307693, 0.07692307692307693, 0.23076923076923078, 0.0, 0.07692307692307693, 0.0, 0.0, 0.0, 0.0, 0.0, 0.07692307692307693, 0.0, 0.0, 0.0, 0.0;
    ( 170 ) 0.0, 0.0, 0.0, 0.0, 0.0, 0.0, 0.0, 0.125, 0.0, 0.0, 0.375, 0.0, 0.125, 0.0, 0.0, 0.125, 0.125, 0.0, 0.0, 0.0, 0.125, 0.0, 0.0, 0.0, 0.0, 0.0, 0.0, 0.0, 0.0;
    ( 180 ) 0.0, 0.0, 0.0, 0.0, 0.0, 0.0, 0.0, 0.0, 0.0, 0.0, 0.0, 0.0, 0.0, 0.0, 0.0, 0.3333333333333333, 0.0, 0.0, 0.0, 0.0, 0.6666666666666666, 0.0, 0.0, 0.0, 0.0, 0.0, 0.0, 0.0, 0.0;
    ( 190 ) 0.0, 0.0, 0.0, 0.0, 0.0, 0.0, 0.0, 0.0, 0.0, 0.0, 0.0, 0.0, 0.0, 0.0, 0.0, 0.0, 1.0, 0.0, 0.0, 0.0, 0.0, 0.0, 0.0, 0.0, 0.0, 0.0, 0.0, 0.0, 0.0;
    ( 200 ) 0.0, 0.0, 0.0, 0.0, 0.0, 0.0, 0.0, 0.0, 0.0, 0.0, 0.0, 0.0, 0.0, 0.0, 0.0, 0.0, 1.0, 0.0, 0.0, 0.0, 0.0, 0.0, 0.0, 0.0, 0.0, 0.0, 0.0, 0.0, 0.0;
    ( 90 ) 0.0, 0.0, 0.0, 0.0, 0.0, 0.0, 0.0, 0.5, 0.0, 0.0, 0.5, 0.0, 0.0, 0.0, 0.0, 0.0, 0.0, 0.0, 0.0, 0.0, 0.0, 0.0, 0.0, 0.0, 0.0, 0.0, 0.0, 0.0, 0.0;

}
probability ( cp | exang ) {
    ( 0.0 ) 0.095, 0.225, 0.36, 0.32;
    ( 1.0 ) 0.041237113402061855, 0.041237113402061855, 0.1134020618556701, 0.8041237113402062;

}
probability ( exang | num ) {
    ( 0 ) 0.85625, 0.14375;
    ( 1 ) 0.5555555555555556, 0.4444444444444444;
    ( 2 ) 0.4, 0.6;
    ( 3 ) 0.34285714285714286, 0.6571428571428571;
    ( 4 ) 0.5384615384615384, 0.46153846153846156;

}
probability ( fbs | chol ) {
    ( 120 ) 0.0, 1.0;
    ( 130 ) 1.0, 0.0;
    ( 140 ) 1.0, 0.0;
    ( 150 ) 1.0, 0.0;
    ( 160 ) 1.0, 0.0;
    ( 170 ) 0.7777777777777778, 0.2222222222222222;
    ( 180 ) 1.0, 0.0;
    ( 190 ) 0.7777777777777778, 0.2222222222222222;
    ( 200 ) 0.8636363636363636, 0.13636363636363635;
    ( 210 ) 0.8636363636363636, 0.13636363636363635;
    ( 220 ) 0.9090909090909091, 0.09090909090909091;
    ( 230 ) 0.8571428571428571, 0.14285714285714285;
    ( 240 ) 0.8, 0.2;
    ( 250 ) 0.8095238095238095, 0.19047619047619047;
    ( 260 ) 0.9565217391304348, 0.043478260869565216;
    ( 270 ) 0.9333333333333333, 0.06666666666666667;
    ( 280 ) 0.625, 0.375;
    ( 290 ) 0.8, 0.2;
    ( 300 ) 0.9411764705882353, 0.058823529411764705;
    ( 310 ) 0.8571428571428571, 0.14285714285714285;
    ( 320 ) 1.0, 0.0;
    ( 330 ) 0.75, 0.25;
    ( 340 ) 0.6666666666666666, 0.3333333333333333;
    ( 350 ) 1.0, 0.0;
    ( 360 ) 1.0, 0.0;
    ( 390 ) 1.0, 0.0;
    ( 400 ) 1.0, 0.0;
    ( 410 ) 0.0, 1.0;
    ( 560 ) 1.0, 0.0;

}
probability ( num | thal ) {
    ( 3.0 ) 0.774390243902439, 0.13414634146341464, 0.042682926829268296, 0.036585365853658534, 0.012195121951219513;
    ( 6.0 ) 0.3333333333333333, 0.16666666666666666, 0.3333333333333333, 0.05555555555555555, 0.1111111111111111;
    ( 7.0 ) 0.23478260869565218, 0.25217391304347825, 0.19130434782608696, 0.24347826086956523, 0.0782608695652174;

}
probability ( oldpeak | slope ) {
    ( 1.0 ) 0.8201438848920863, 0.15827338129496402, 0.007194244604316547, 0.007194244604316547, 0.007194244604316547, 0.0, 0.0;
    ( 2.0 ) 0.32116788321167883, 0.3722627737226277, 0.20437956204379562, 0.08759124087591241, 0.014598540145985401, 0.0, 0.0;
    ( 3.0 ) 0.14285714285714285, 0.19047619047619047, 0.23809523809523808, 0.19047619047619047, 0.14285714285714285, 0.047619047619047616, 0.047619047619047616;

}
probability ( restecg ) {
    table 0.494949494949495, 0.013468013468013467, 0.49158249158249157 ;
}
probability ( sex ) {
    table 0.32323232323232326, 0.6767676767676768 ;
}
probability ( slope | exang ) {
    ( 0.0 ) 0.565, 0.375, 0.06;
    ( 1.0 ) 0.26804123711340205, 0.6391752577319587, 0.09278350515463918;

}
probability ( thal | age, sex ) {
    ( 20, 0.0 ) 0.3333333333333333, 0.3333333333333333, 0.3333333333333333;
    ( 20, 1.0 ) 1.0, 0.0, 0.0;
    ( 30, 0.0 ) 1.0, 0.0, 0.0;
    ( 30, 1.0 ) 0.5, 0.0, 0.5;
    ( 40, 0.0 ) 0.9473684210526315, 0.0, 0.05263157894736842;
    ( 40, 1.0 ) 0.6153846153846154, 0.057692307692307696, 0.3269230769230769;
    ( 50, 0.0 ) 0.8181818181818182, 0.030303030303030304, 0.15151515151515152;
    ( 50, 1.0 ) 0.32954545454545453, 0.10227272727272728, 0.5681818181818182;
    ( 60, 0.0 ) 0.7352941176470589, 0.0, 0.2647058823529412;
    ( 60, 1.0 ) 0.3191489361702128, 0.10638297872340426, 0.574468085106383;
    ( 70, 0.0 ) 1.0, 0.0, 0.0;
    ( 70, 1.0 ) 0.6, 0.0, 0.4;

}
probability ( thalach | num, restecg ) {
    ( 0, 0.0 ) 0.010869565217391304, 0.010869565217391304, 0.043478260869565216, 0.06521739130434782, 0.09782608695652174, 0.15217391304347827, 0.25, 0.2826086956521739, 0.05434782608695652, 0.021739130434782608, 0.0, 0.0, 0.0, 0.010869565217391304;
    ( 0, 1.0 ) 0.0, 1.0, 0.0, 0.0, 0.0, 0.0, 0.0, 0.0, 0.0, 0.0, 0.0, 0.0, 0.0, 0.0;
    ( 0, 2.0 ) 0.0, 0.029850746268656716, 0.05970149253731343, 0.04477611940298507, 0.13432835820895522, 0.26865671641791045, 0.19402985074626866, 0.11940298507462686, 0.11940298507462686, 0.014925373134328358, 0.014925373134328358, 0.0, 0.0, 0.0;
    ( 1, 0.0 ) 0.043478260869565216, 0.0, 0.043478260869565216, 0.17391304347826086, 0.17391304347826086, 0.13043478260869565, 0.2608695652173913, 0.043478260869565216, 0.043478260869565216, 0.0, 0.0, 0.0, 0.043478260869565216, 0.043478260869565216;
    ( 1, 1.0 ) 0.07142857142857142, 0.07142857142857142, 0.07142857142857142, 0.07142857142857142, 0.07142857142857142, 0.07142857142857142, 0.07142857142857142, 0.07142857142857142, 0.07142857142857142, 0.07142857142857142, 0.07142857142857142, 0.07142857142857142, 0.07142857142857142, 0.07142857142857142;
    ( 1, 2.0 ) 0.0967741935483871, 0.06451612903225806, 0.0967741935483871, 0.06451612903225806, 0.12903225806451613, 0.25806451612903225, 0.12903225806451613, 0.12903225806451613, 0.0, 0.03225806451612903, 0.0, 0.0, 0.0, 0.0;
    ( 2, 0.0 ) 0.05555555555555555, 0.05555555555555555, 0.16666666666666666, 0.05555555555555555, 0.3333333333333333, 0.05555555555555555, 0.16666666666666666, 0.0, 0.0, 0.0, 0.0, 0.05555555555555555, 0.0, 0.05555555555555555;
    ( 2, 1.0 ) 0.0, 1.0, 0.0, 0.0, 0.0, 0.0, 0.0, 0.0, 0.0, 0.0, 0.0, 0.0, 0.0, 0.0;
    ( 2, 2.0 ) 0.125, 0.0, 0.0625, 0.125, 0.5, 0.125, 0.0, 0.0625, 0.0, 0.0, 0.0, 0.0, 0.0, 0.0;
    ( 3, 0.0 ) 0.0, 0.25, 0.16666666666666666, 0.16666666666666666, 0.08333333333333333, 0.0, 0.25, 0.0, 0.0, 0.0, 0.0, 0.0, 0.0, 0.08333333333333333;
    ( 3, 1.0 ) 0.0, 0.0, 0.0, 1.0, 0.0, 0.0, 0.0, 0.0, 0.0, 0.0, 0.0, 0.0, 0.0, 0.0;
    ( 3, 2.0 ) 0.09090909090909091, 0.13636363636363635, 0.13636363636363635, 0.13636363636363635, 0.09090909090909091, 0.18181818181818182, 0.09090909090909091, 0.045454545454545456, 0.0, 0.0, 0.0, 0.0, 0.0, 0.09090909090909091;
    ( 4, 0.0 ) 0.0, 0.0, 0.5, 0.0, 0.0, 0.0, 0.0, 0.0, 0.5, 0.0, 0.0, 0.0, 0.0, 0.0;
    ( 4, 1.0 ) 0.0, 0.0, 0.0, 0.0, 1.0, 0.0, 0.0, 0.0, 0.0, 0.0, 0.0, 0.0, 0.0, 0.0;
    ( 4, 2.0 ) 0.0, 0.1, 0.3, 0.2, 0.1, 0.1, 0.2, 0.0, 0.0, 0.0, 0.0, 0.0, 0.0, 0.0;

}
probability ( trestbps | cp ) {
    ( 1.0 ) 0.0, 0.17391304347826086, 0.13043478260869565, 0.13043478260869565, 0.17391304347826086, 0.17391304347826086, 0.08695652173913043, 0.13043478260869565, 0.0, 0.0, 0.0, 0.0;
    ( 2.0 ) 0.08163265306122448, 0.08163265306122448, 0.3469387755102041, 0.32653061224489793, 0.061224489795918366, 0.04081632653061224, 0.04081632653061224, 0.0, 0.0, 0.02040816326530612, 0.0, 0.0;
    ( 3.0 ) 0.07228915662650602, 0.12048192771084337, 0.2289156626506024, 0.2289156626506024, 0.1566265060240964, 0.10843373493975904, 0.03614457831325301, 0.012048192771084338, 0.012048192771084338, 0.0, 0.0, 0.024096385542168676;
    ( 4.0 ) 0.056338028169014086, 0.15492957746478872, 0.2323943661971831, 0.20422535211267606, 0.18309859154929578, 0.07746478873239436, 0.04225352112676056, 0.028169014084507043, 0.014084507042253521, 0.0, 0.007042253521126761, 0.0;

}
